{
    "in_shape": [
        null,
        null,
        1
    ],
    "in_skip": 1,
    "layers": [
        {
            "type": "lstm",
            "activation": "",
            "shape": [
                null,
                null,
                12
            ],
            "weights": [
                [
                    [
                        -0.06264731287956238,
                        0.015389272011816502,
                        -0.018054969608783722,
                        8.603220521763433e-06,
                        0.4500594437122345,
                        -0.0025616700295358896,
                        -0.07687705755233765,
                        2.8670590836554766e-05,
                        -1.4744860443727248e-08,
                        -0.025050519034266472,
                        0.07660339772701263,
                        -0.2700306475162506,
                        0.12910564243793488,
                        -0.03679196909070015,
                        -0.002104606479406357,
                        6.9336606429715175e-06,
                        -0.09168913215398788,
                        0.019137905910611153,
                        -0.07586067169904709,
                        5.803694421047112e-06,
                        -9.942953127506371e-09,
                        0.1109575480222702,
                        0.06648065149784088,
                        -0.02870849519968033,
                        1.2521519660949707,
                        0.17288410663604736,
                        -0.18323473632335663,
                        0.002347732661291957,
                        -0.9680433869361877,
                        1.1100918054580688,
                        0.28060704469680786,
                        0.0023859816137701273,
                        -0.00010148849833058193,
                        0.31699323654174805,
                        -3.843233585357666,
                        1.194593906402588,
                        -0.08298031985759735,
                        -0.06909008324146271,
                        0.01718210056424141,
                        1.3370160559134092e-05,
                        0.4060756266117096,
                        0.005131031386554241,
                        -0.022222377359867096,
                        6.745176051481394e-06,
                        -1.2422921358279382e-08,
                        0.12314583361148834,
                        0.1433514803647995,
                        -0.05867907404899597
                    ]
                ],
                [
                    [
                        0.12112808227539062,
                        -0.09464140236377716,
                        -0.16834795475006104,
                        1.818323835323099e-05,
                        0.4629284739494324,
                        0.04870988428592682,
                        -0.13131581246852875,
                        4.8922978749033064e-05,
                        -2.3150727557208484e-08,
                        -0.06820835173130035,
                        0.24159954488277435,
                        -0.3131108283996582,
                        0.4364987015724182,
                        0.08174818009138107,
                        0.26663121581077576,
                        1.4680285858048592e-05,
                        0.06469523906707764,
                        0.1422867625951767,
                        0.1045844703912735,
                        3.99669079342857e-05,
                        -9.354576668840764e-09,
                        -0.02525017410516739,
                        -0.0455608107149601,
                        -0.014683873392641544,
                        -1.005643606185913,
                        -0.14824001491069794,
                        0.14419059455394745,
                        -0.004399298224598169,
                        -0.04499291256070137,
                        -0.5377743244171143,
                        -0.044509537518024445,
                        -0.003810144029557705,
                        -2.4919892894104123e-05,
                        -0.26216843724250793,
                        0.06552299112081528,
                        0.16913582384586334,
                        0.16574865579605103,
                        -0.033951032906770706,
                        0.10720379650592804,
                        2.2444297428592108e-05,
                        -0.37687045335769653,
                        0.04658391326665878,
                        0.032344620674848557,
                        5.4702028137398884e-05,
                        -2.0798466948690475e-08,
                        -0.2084641456604004,
                        0.36959129571914673,
                        0.2558659315109253
                    ],
                    [
                        -0.02146792784333229,
                        0.09232304245233536,
                        -0.240132138133049,
                        2.063992724288255e-05,
                        0.1315137892961502,
                        0.014624502509832382,
                        -0.026732120662927628,
                        3.441742228460498e-05,
                        -1.3598679515780532e-08,
                        -0.009657767601311207,
                        0.15442624688148499,
                        -0.14253993332386017,
                        0.024445628747344017,
                        0.2476973682641983,
                        0.2459423691034317,
                        2.176239104301203e-05,
                        0.27208107709884644,
                        0.0793386921286583,
                        0.08176296949386597,
                        3.2807609386509284e-05,
                        -6.63373045384219e-09,
                        -0.05577196553349495,
                        0.09784550219774246,
                        0.06785229593515396,
                        -0.3871041536331177,
                        0.4369540214538574,
                        0.1439552754163742,
                        0.00025522190844640136,
                        -0.3842281699180603,
                        -0.022445324808359146,
                        0.12196657061576843,
                        -0.00046561419731006026,
                        -0.00013411093095783144,
                        -0.2193049192428589,
                        0.1893860399723053,
                        0.4138078987598419,
                        -0.027698488906025887,
                        0.08511589467525482,
                        -0.04024289548397064,
                        2.0656822016462684e-05,
                        0.169088676571846,
                        0.011531948111951351,
                        -0.003172546625137329,
                        3.5463119274936616e-05,
                        -1.3262318354634317e-08,
                        -0.0072850133292376995,
                        0.29019027948379517,
                        -0.024144228547811508
                    ],
                    [
                        -0.06745435297489166,
                        -0.043074965476989746,
                        0.06858275085687637,
                        -5.520862941921223e-06,
                        0.19158831238746643,
                        -0.03148781135678291,
                        0.08237999677658081,
                        -1.7212109924003016e-06,
                        5.723935991852613e-09,
                        -0.09573045372962952,
                        -0.032238200306892395,
                        -0.27181288599967957,
                        -0.03955119103193283,
                        0.0454120859503746,
                        0.04255901649594307,
                        -5.664300715579884e-06,
                        0.16969220340251923,
                        0.02074202336370945,
                        0.11128639429807663,
                        -1.945971234817989e-06,
                        3.1389775223544802e-09,
                        -0.122294120490551,
                        -0.03601868823170662,
                        -0.3770420253276825,
                        -0.2583438456058502,
                        -0.3172641098499298,
                        0.7342932820320129,
                        -0.0003092679544351995,
                        0.28869855403900146,
                        -0.22615136206150055,
                        0.07895124703645706,
                        -0.0006314493366517127,
                        -4.4575870560947806e-05,
                        0.0787130743265152,
                        -1.168239951133728,
                        -0.4282473921775818,
                        -0.07109688222408295,
                        0.006471727043390274,
                        -0.040560007095336914,
                        -5.057086582382908e-06,
                        0.19594953954219818,
                        -0.032650236040353775,
                        0.061678044497966766,
                        -3.2528026849831804e-07,
                        5.633497224266648e-09,
                        -0.15566259622573853,
                        0.021526629105210304,
                        -0.18451973795890808
                    ],
                    [
                        0.0025158552452921867,
                        0.0026729279197752476,
                        0.0035603982396423817,
                        7.54210395825794e-06,
                        -0.00041857355972751975,
                        0.0027452518697828054,
                        0.00041413295548409224,
                        1.037588754115859e-05,
                        -4.237738493451104e-10,
                        0.001739045139402151,
                        0.0018971392419189215,
                        0.000968281994573772,
                        -0.0038418895564973354,
                        0.0041898819617927074,
                        0.0027175836730748415,
                        7.648824066563975e-06,
                        0.005066446494311094,
                        -0.004127658437937498,
                        0.001527678919956088,
                        1.047681325871963e-05,
                        -3.5957006816467185e-10,
                        0.0017884710105136037,
                        0.0020048203878104687,
                        0.0020778696052730083,
                        -6.571191624971107e-05,
                        0.001675303210504353,
                        0.0004937799531035125,
                        -1.4671277313027531e-05,
                        -0.008058032020926476,
                        -2.898561069741845e-05,
                        -0.0032420693896710873,
                        -9.05501437955536e-05,
                        7.748296411591582e-06,
                        0.002229472156614065,
                        0.004050106275826693,
                        -0.00567274447530508,
                        0.0031155403703451157,
                        0.001746798399835825,
                        0.0016508803237229586,
                        7.5842126534553245e-06,
                        0.004095083102583885,
                        0.002933461917564273,
                        0.0009619537740945816,
                        1.0293256309523713e-05,
                        -4.3116490933137186e-10,
                        0.0027010550256818533,
                        0.00220174016430974,
                        0.0009440137655474246
                    ],
                    [
                        -0.09344199299812317,
                        -0.2674405574798584,
                        -0.3876574635505676,
                        7.715038918831851e-06,
                        0.1502862274646759,
                        0.10330138355493546,
                        -0.12341812998056412,
                        -4.735569018521346e-05,
                        -4.009995535625421e-08,
                        -0.19295050203800201,
                        0.5661153793334961,
                        -0.5581586360931396,
                        0.4505119323730469,
                        0.22759737074375153,
                        0.32225242257118225,
                        2.1955831925879465e-06,
                        0.13081298768520355,
                        0.4811978340148926,
                        0.2631566524505615,
                        -4.514245665632188e-05,
                        -8.19518009009812e-10,
                        -0.041859034448862076,
                        -0.15732020139694214,
                        -0.010631679557263851,
                        0.701500654220581,
                        0.11892715096473694,
                        -0.12123391777276993,
                        -0.009673243388533592,
                        0.4018948972225189,
                        0.14350974559783936,
                        -0.017504533752799034,
                        -0.008579335175454617,
                        2.7279838832328096e-05,
                        0.26888197660446167,
                        -0.6572026610374451,
                        0.48899170756340027,
                        -0.15008041262626648,
                        -0.06842674314975739,
                        0.21733905375003815,
                        9.581243830325548e-06,
                        0.2724434435367584,
                        0.08687857538461685,
                        0.11584904044866562,
                        -2.8707403544103727e-05,
                        -3.989269004023299e-08,
                        -0.29352864623069763,
                        1.1892074346542358,
                        0.015678882598876953
                    ],
                    [
                        0.11385121941566467,
                        0.02080526016652584,
                        0.12909284234046936,
                        2.4821129045449197e-06,
                        0.7795059680938721,
                        -0.011437897570431232,
                        -0.02451658621430397,
                        7.327671028178884e-06,
                        2.6048516121868204e-10,
                        -0.10039517283439636,
                        -0.00888855941593647,
                        -0.8476945757865906,
                        0.047327909618616104,
                        -0.025593705475330353,
                        -0.07929220050573349,
                        1.5408973922603764e-05,
                        -0.09972330927848816,
                        0.06774875521659851,
                        -0.05075455829501152,
                        1.0550911611062475e-05,
                        7.76870390239992e-09,
                        -0.14273646473884583,
                        0.024767855182290077,
                        0.04187062755227089,
                        0.7155064344406128,
                        -0.22337175905704498,
                        -0.16472268104553223,
                        -0.0043454598635435104,
                        -0.8466636538505554,
                        -1.5648117065429688,
                        0.12993666529655457,
                        -0.003236431162804365,
                        -0.00020244938787072897,
                        0.38979557156562805,
                        0.5775469541549683,
                        0.8410009741783142,
                        0.06955873221158981,
                        -0.07220593094825745,
                        -0.011973203159868717,
                        1.2670752767007798e-05,
                        0.2900771200656891,
                        0.005521505139768124,
                        0.005303048063069582,
                        2.0737863451358862e-05,
                        -6.242991013039045e-09,
                        -0.10546758025884628,
                        0.1391887217760086,
                        -0.22327281534671783
                    ],
                    [
                        0.06368093192577362,
                        0.004282949957996607,
                        -0.028520897030830383,
                        -2.4676204702700488e-05,
                        -0.2071763426065445,
                        -0.015534775331616402,
                        -0.1128452867269516,
                        -5.4862466640770435e-05,
                        1.0818832808789924e-11,
                        0.04405888915061951,
                        -0.0744936615228653,
                        -0.0007600050303153694,
                        0.02846679650247097,
                        -0.13442350924015045,
                        -0.060801610350608826,
                        -2.0067285731784068e-05,
                        0.022048387676477432,
                        0.05260206386446953,
                        -0.14808392524719238,
                        -5.07962322444655e-05,
                        -3.1839166858560475e-09,
                        0.007192632649093866,
                        0.10482484847307205,
                        0.015188862569630146,
                        -0.20173178613185883,
                        0.09111421555280685,
                        -0.03153994679450989,
                        -0.001366535434499383,
                        0.3020540475845337,
                        -0.47984179854393005,
                        0.40734437108039856,
                        -0.0006018929416313767,
                        0.00015399541007354856,
                        -0.22782275080680847,
                        0.6518972516059875,
                        -0.330700546503067,
                        0.07366710901260376,
                        -0.02237795852124691,
                        -0.15283344686031342,
                        -2.335296812816523e-05,
                        -0.3381018340587616,
                        -0.018169483169913292,
                        -0.1429489403963089,
                        -5.172166129341349e-05,
                        -2.864606885033538e-10,
                        0.09165004640817642,
                        -0.006841972935944796,
                        0.09933525323867798
                    ],
                    [
                        0.004454606678336859,
                        0.002452890621498227,
                        0.003273860551416874,
                        9.264064829039853e-06,
                        -0.001619130838662386,
                        0.005117050372064114,
                        1.4218715477909427e-05,
                        1.0817005204444285e-05,
                        -8.296223152903792e-10,
                        0.0030982173047959805,
                        0.00518530048429966,
                        0.002277403138577938,
                        -0.003568062325939536,
                        0.005024044308811426,
                        0.0036728379782289267,
                        9.381811651110183e-06,
                        0.004943378269672394,
                        -0.0041994862258434296,
                        0.0019914666190743446,
                        1.0901672794716433e-05,
                        -5.50356982209621e-10,
                        0.0029630118515342474,
                        0.0021605973597615957,
                        0.002377632772549987,
                        -0.00300942687317729,
                        0.0014906832948327065,
                        0.0002932296774815768,
                        -0.00014019427180755883,
                        -0.011804021894931793,
                        0.000722830300219357,
                        -0.004551703110337257,
                        -0.0002584195462986827,
                        7.701926733716391e-06,
                        0.0019880395848304033,
                        0.003357662120833993,
                        -0.008592722937464714,
                        0.005347279831767082,
                        0.002629178576171398,
                        0.0031481911428272724,
                        9.337796655017883e-06,
                        0.004732457920908928,
                        0.005351545754820108,
                        0.0020254147239029408,
                        1.0848319107026327e-05,
                        -8.474032031635659e-10,
                        0.0037141735665500164,
                        0.004489284940063953,
                        0.002637778641656041
                    ],
                    [
                        -1.040657934936462e-06,
                        -7.152098987717181e-05,
                        4.439499389263801e-05,
                        -2.527153064590948e-08,
                        -4.7686447942396626e-05,
                        -2.7597527605394134e-06,
                        -2.1925881810602732e-05,
                        -1.0310385079037587e-07,
                        3.2261397871734265e-13,
                        3.957266471843468e-06,
                        -2.229696838185191e-05,
                        3.016937625943683e-05,
                        -1.7117557945312e-05,
                        -7.524592365371063e-05,
                        -5.797551784780808e-05,
                        -2.30389627375871e-08,
                        -0.00015633722068741918,
                        6.112249593570596e-06,
                        -3.9301798096857965e-05,
                        -1.0068122691109238e-07,
                        -4.906356896282327e-13,
                        2.068648609565571e-05,
                        -1.2121138752263505e-05,
                        4.401393380248919e-05,
                        0.0003148686373606324,
                        0.00017513733473606408,
                        -8.873656042851508e-05,
                        -5.769407380284974e-06,
                        0.0001012305001495406,
                        -2.760949791991152e-05,
                        -6.816016684751958e-05,
                        -9.923246580001432e-06,
                        -7.76244206690535e-08,
                        0.00015031993098091334,
                        1.3022883649682626e-05,
                        -0.0001927246485138312,
                        -1.1445104064478073e-05,
                        -1.539476761536207e-05,
                        8.541169336240273e-06,
                        -2.3885016631197686e-08,
                        -1.5739089576527476e-05,
                        -3.051628027606057e-06,
                        -2.9816583264619112e-05,
                        -9.959362046174647e-08,
                        4.3857010579607947e-13,
                        3.0938026611693203e-05,
                        -6.617765029659495e-05,
                        -1.32711575133726e-05
                    ],
                    [
                        -0.051550887525081635,
                        -0.055740319192409515,
                        -0.06967031955718994,
                        -1.1650478882074822e-05,
                        0.05708834528923035,
                        -0.07516438513994217,
                        0.046296626329422,
                        -0.00010037545871455222,
                        3.5777986795437755e-08,
                        0.06476586312055588,
                        -0.277022123336792,
                        0.18276935815811157,
                        -0.13457272946834564,
                        -0.17954502999782562,
                        -0.4038901627063751,
                        -6.997997388680233e-06,
                        0.13855968415737152,
                        -0.17896117269992828,
                        -0.12943202257156372,
                        -8.823741518426687e-05,
                        1.9632683034842557e-08,
                        0.008942028507590294,
                        -0.0266351830214262,
                        0.054774343967437744,
                        -0.38307350873947144,
                        0.08954226970672607,
                        0.14965397119522095,
                        -0.002635442651808262,
                        -0.08325619995594025,
                        -0.11415928602218628,
                        -0.25643593072891235,
                        -0.004555797670036554,
                        -0.00011655202979454771,
                        0.08851281553506851,
                        -0.8800294399261475,
                        0.11250203847885132,
                        -0.02914559468626976,
                        -0.0568295493721962,
                        -0.10441553592681885,
                        -2.251151090604253e-05,
                        -0.0037821168079972267,
                        -0.07014472037553787,
                        -0.008508225902915001,
                        -0.00011483841808512807,
                        3.8985564998483824e-08,
                        0.012220253236591816,
                        -0.5799785852432251,
                        0.07644761353731155
                    ],
                    [
                        0.11491589993238449,
                        -0.052050065249204636,
                        0.03293256461620331,
                        2.3087293811840937e-05,
                        -0.6899188160896301,
                        0.0784977525472641,
                        -0.04787858575582504,
                        3.022718919964973e-05,
                        -5.237764888477159e-09,
                        -0.050152651965618134,
                        -0.03740159794688225,
                        0.28155261278152466,
                        -0.17896638810634613,
                        0.09437264502048492,
                        0.025038519874215126,
                        8.52461835165741e-06,
                        0.22768522799015045,
                        0.051198314875364304,
                        -0.02428661659359932,
                        2.4288596250698902e-05,
                        3.5957556931975887e-09,
                        -0.20492985844612122,
                        -0.12386627495288849,
                        -0.19071567058563232,
                        -0.3597153425216675,
                        0.2713196575641632,
                        0.2015579342842102,
                        -0.0021761565003544092,
                        0.7616302371025085,
                        1.290889859199524,
                        -0.10772056877613068,
                        0.0007005293155089021,
                        -6.799449329264462e-05,
                        -0.5838212966918945,
                        -0.14048589766025543,
                        -0.9400239586830139,
                        0.035234663635492325,
                        -0.06413599103689194,
                        0.03502195328474045,
                        2.6213849196210504e-05,
                        0.42775243520736694,
                        0.06910867989063263,
                        -0.017637910321354866,
                        5.997510743327439e-05,
                        -1.9563124453725322e-08,
                        -0.05742766335606575,
                        0.051019906997680664,
                        -0.2560420334339142
                    ],
                    [
                        -0.07563292235136032,
                        -0.08571788668632507,
                        -0.3212088942527771,
                        5.2306226280052215e-05,
                        -0.3933044672012329,
                        0.01830190047621727,
                        -0.05642088130116463,
                        0.000140348041895777,
                        -4.0300463410858356e-08,
                        -0.12804125249385834,
                        0.35170087218284607,
                        0.2675209939479828,
                        0.34707415103912354,
                        0.0957513228058815,
                        0.34688523411750793,
                        2.8995380489504896e-05,
                        -0.24743473529815674,
                        0.21834635734558105,
                        0.16281886398792267,
                        0.00010676895180949941,
                        -3.1318450055550784e-08,
                        -0.008267771452665329,
                        -0.0565229207277298,
                        -0.09569590538740158,
                        0.050808921456336975,
                        0.046296097338199615,
                        0.14505048096179962,
                        -0.001661429414525628,
                        0.6894698739051819,
                        -0.1389530748128891,
                        -0.1399746835231781,
                        -1.3752222912444267e-05,
                        -7.345242920564488e-05,
                        -0.8972412943840027,
                        0.675279438495636,
                        -0.3429257869720459,
                        -0.07629024237394333,
                        0.031899042427539825,
                        0.1890559047460556,
                        4.518774221651256e-05,
                        -0.2995182275772095,
                        3.2718831789679825e-05,
                        0.036866120994091034,
                        0.00012411823263391852,
                        -3.761614308928074e-08,
                        -0.13261696696281433,
                        0.4658821225166321,
                        0.26751643419265747
                    ]
                ],
                [
                    1.487702488899231,
                    -1.9222350120544434,
                    -1.900444507598877,
                    -9.048144420376047e-06,
                    -0.468387246131897,
                    1.7876026630401611,
                    -0.08777216076850891,
                    -0.0004979207878932357,
                    -2.76224085382637e-07,
                    0.4941801130771637,
                    1.9144047498703003,
                    -0.1895800083875656,
                    -0.7640916109085083,
                    2.7379369735717773,
                    2.4633374214172363,
                    -2.9017706765444018e-05,
                    1.660447597503662,
                    -1.0430750846862793,
                    1.2694573402404785,
                    -0.000513812992721796,
                    -1.5524886975981644e-07,
                    0.4141078591346741,
                    -1.420130968093872,
                    1.4551292657852173,
                    0.004176802933216095,
                    -0.026899926364421844,
                    -0.0027800798416137695,
                    0.00842250231653452,
                    -0.01598411798477173,
                    -0.09985639154911041,
                    -0.01494729146361351,
                    0.013115313835442066,
                    3.825291059911251e-06,
                    -0.07718982547521591,
                    0.024184562265872955,
                    0.05933285877108574,
                    1.617080569267273,
                    0.3909480571746826,
                    0.9925479888916016,
                    -5.947716545051662e-06,
                    0.6590780019760132,
                    1.841695785522461,
                    0.7056362628936768,
                    -0.000476134562632069,
                    -2.7550453296498745e-07,
                    0.5229827165603638,
                    0.9047242403030396,
                    0.8713359832763672
                ]
            ]
        },
        {
            "type": "dense",
            "activation": "",
            "shape": [
                null,
                null,
                1
            ],
            "weights": [
                [
                    [
                        -1.0108256340026855
                    ],
                    [
                        0.08664684742689133
                    ],
                    [
                        0.5527108907699585
                    ],
                    [
                        0.0008137726690620184
                    ],
                    [
                        0.5840336084365845
                    ],
                    [
                        0.6271954774856567
                    ],
                    [
                        -0.02355119213461876
                    ],
                    [
                        0.0028578918427228928
                    ],
                    [
                        9.834762749960646e-05
                    ],
                    [
                        -0.44958382844924927
                    ],
                    [
                        -1.1609821319580078
                    ],
                    [
                        -0.49997055530548096
                    ]
                ],
                [
                    0.08396964520215988
                ]
            ]
        }
    ],
    "samplerate": "48000",
    "author": "deer ink studios",
    "source":"original",
    "style": "clean",
    "based": "Egnater Tweaker 40 AC",      
    "dataset": "extended",
    "description": ""
    "esr": 0.02095636911690235
}