{
    "in_shape": [
        null,
        null,
        1
    ],
    "in_skip": 1,
    "layers": [
        {
            "type": "lstm",
            "activation": "",
            "shape": [
                null,
                null,
                12
            ],
            "weights": [
                [
                    [
                        0.08637383580207825,
                        -0.032702986150979996,
                        -0.0712263360619545,
                        0.04043769836425781,
                        0.007367153186351061,
                        -0.01062688510864973,
                        -0.18471892178058624,
                        0.010978631675243378,
                        0.1275004744529724,
                        0.13055886328220367,
                        0.013765421696007252,
                        0.019147340208292007,
                        0.03850560262799263,
                        -0.012434816919267178,
                        -0.0742751806974411,
                        0.0606556199491024,
                        -0.015628047287464142,
                        0.010722259990870953,
                        -0.16789381206035614,
                        -0.05869782343506813,
                        0.07983402162790298,
                        0.0785338506102562,
                        -0.0054362122900784016,
                        -0.04375477507710457,
                        0.35287022590637207,
                        -0.25893691182136536,
                        -0.21739603579044342,
                        -0.3285755515098572,
                        0.076071597635746,
                        0.15198978781700134,
                        0.2075219601392746,
                        1.0353981256484985,
                        -0.10420244932174683,
                        -0.7916955351829529,
                        0.07114613801240921,
                        0.7588953375816345,
                        -0.015265217050909996,
                        -0.02406175248324871,
                        -0.014132327400147915,
                        0.03133644908666611,
                        0.002614740515127778,
                        -0.0240654144436121,
                        -0.158444344997406,
                        0.011130153201520443,
                        0.11513234674930573,
                        0.09637782722711563,
                        0.008319259621202946,
                        0.016621042042970657
                    ]
                ],
                [
                    [
                        0.02741284854710102,
                        0.015248924493789673,
                        0.10768264532089233,
                        0.004844558425247669,
                        0.022898130118846893,
                        0.07616649568080902,
                        0.03866346925497055,
                        0.01327001303434372,
                        -0.009678751230239868,
                        0.005923353135585785,
                        0.02931433543562889,
                        0.012737193144857883,
                        -0.014647702686488628,
                        0.009248591028153896,
                        0.045682162046432495,
                        -0.0680176392197609,
                        -0.02208668179810047,
                        0.15478861331939697,
                        0.05285976454615593,
                        0.024890299886465073,
                        -0.020452095195651054,
                        0.0735154077410698,
                        0.007260221056640148,
                        -0.028644869104027748,
                        0.7294557690620422,
                        -0.012554788030683994,
                        0.10449869930744171,
                        -0.09993599355220795,
                        -0.014308643527328968,
                        0.24623548984527588,
                        0.06773607432842255,
                        0.02534579113125801,
                        -0.1902027577161789,
                        -0.2445840686559677,
                        0.03276822715997696,
                        0.036588311195373535,
                        0.0786246508359909,
                        0.0015448881313204765,
                        0.10327766090631485,
                        0.021027997136116028,
                        0.023660333827137947,
                        0.05901807174086571,
                        0.03271661698818207,
                        0.015051844529807568,
                        0.001238179742358625,
                        0.015171987004578114,
                        0.03396997228264809,
                        0.015576952137053013
                    ],
                    [
                        -0.05998137965798378,
                        -0.023837562650442123,
                        -0.054177284240722656,
                        -0.03170577064156532,
                        -0.005262354388833046,
                        -0.09615399688482285,
                        -0.011486736126244068,
                        0.0022839705925434828,
                        -0.07183969020843506,
                        0.035341329872608185,
                        -0.010363345965743065,
                        -0.02279740758240223,
                        -0.09150218218564987,
                        -0.013428382575511932,
                        -0.06278368830680847,
                        -0.01204550452530384,
                        0.0035394944716244936,
                        -0.04192126542329788,
                        -0.005746651440858841,
                        -0.022133346647024155,
                        -0.03955061361193657,
                        0.03302032873034477,
                        0.01188691332936287,
                        -0.0538843534886837,
                        -0.03289276361465454,
                        0.6289368271827698,
                        0.0014127151807770133,
                        -0.1819635033607483,
                        0.2936926782131195,
                        -0.24067296087741852,
                        -0.08907045423984528,
                        -0.5709022283554077,
                        0.17257724702358246,
                        -0.18857981264591217,
                        -0.5514103770256042,
                        0.17848551273345947,
                        -0.020648883655667305,
                        0.05218030884861946,
                        -0.07723910361528397,
                        -0.0320255272090435,
                        -0.014860009774565697,
                        0.012532136403024197,
                        0.0016918915789574385,
                        0.00623740442097187,
                        -0.06550309807062149,
                        -0.014593442901968956,
                        -0.013892914168536663,
                        -0.020965516567230225
                    ],
                    [
                        -0.08768695592880249,
                        0.028086306527256966,
                        0.08366405963897705,
                        -0.02548070065677166,
                        0.051454607397317886,
                        0.08179185539484024,
                        0.12451107800006866,
                        0.07613759487867355,
                        -0.031164010986685753,
                        0.007090343162417412,
                        0.062039993703365326,
                        0.03808654099702835,
                        -0.025039270520210266,
                        0.029348893091082573,
                        0.14209836721420288,
                        -0.03522023558616638,
                        -0.012172464281320572,
                        0.05237637460231781,
                        0.12622122466564178,
                        0.03871161863207817,
                        -0.05670556426048279,
                        0.03481022268533707,
                        0.0038634450174868107,
                        0.01612076908349991,
                        -0.06818689405918121,
                        -0.004689584486186504,
                        0.2990626394748688,
                        -0.08403722196817398,
                        0.30879586935043335,
                        0.13935500383377075,
                        -0.05330334231257439,
                        0.2050556093454361,
                        0.2713877558708191,
                        -0.756351888179779,
                        0.28071489930152893,
                        0.345347136259079,
                        0.009482091292738914,
                        0.023170217871665955,
                        0.08698520809412003,
                        -0.035498689860105515,
                        0.05405570566654205,
                        0.04530823975801468,
                        0.1114259734749794,
                        0.08061099797487259,
                        -0.028001507744193077,
                        0.017416246235370636,
                        0.06783212721347809,
                        0.04578401520848274
                    ],
                    [
                        -0.14722929894924164,
                        0.010348138399422169,
                        -0.11008456349372864,
                        0.014078384265303612,
                        0.001870262436568737,
                        0.029313398525118828,
                        0.03163702040910721,
                        0.017261764034628868,
                        -0.08281048387289047,
                        -0.07038094848394394,
                        -0.0071998112834990025,
                        -0.012969212606549263,
                        -0.007768774405121803,
                        -0.021002624183893204,
                        -0.011546136811375618,
                        0.04745907336473465,
                        0.0012995225843042135,
                        0.02625630423426628,
                        0.062353841960430145,
                        0.026464223861694336,
                        -0.11184410005807877,
                        0.0015169335529208183,
                        -0.003668443998321891,
                        0.000901580264326185,
                        -0.19167520105838776,
                        0.06565024703741074,
                        0.03878147900104523,
                        0.21616379916667938,
                        0.22136351466178894,
                        0.02634323574602604,
                        -0.06877266615629196,
                        0.06282000988721848,
                        -0.04507860168814659,
                        -0.38112184405326843,
                        -0.4600153863430023,
                        -0.10147307068109512,
                        -0.009852671064436436,
                        -0.03603513166308403,
                        -0.07627905905246735,
                        -0.019261173903942108,
                        -0.0033877084497362375,
                        -0.02340133674442768,
                        0.02204303815960884,
                        0.01522284746170044,
                        -0.05801265686750412,
                        -0.061930470168590546,
                        -0.005249542184174061,
                        -0.0063613420352339745
                    ],
                    [
                        -0.015803983435034752,
                        -0.022724103182554245,
                        0.05360748991370201,
                        -0.0298297181725502,
                        -0.020516205579042435,
                        -0.038315292447805405,
                        0.04996207356452942,
                        -0.017395008355379105,
                        -0.03309124335646629,
                        -0.06321148574352264,
                        -0.019421027973294258,
                        -0.0053056939505040646,
                        -0.06553231179714203,
                        -0.001948923454619944,
                        0.059829019010066986,
                        -0.04814983531832695,
                        -0.0022581988014280796,
                        -0.00020658622088376433,
                        0.05628298223018646,
                        0.02522394247353077,
                        -0.023816820234060287,
                        -0.05641312524676323,
                        0.0003155902377329767,
                        0.038489606231451035,
                        -0.3204377591609955,
                        0.4834640622138977,
                        0.22856882214546204,
                        -0.5875647664070129,
                        -0.23530617356300354,
                        0.42768576741218567,
                        0.030868716537952423,
                        0.8661775588989258,
                        -0.23342470824718475,
                        -0.0665583685040474,
                        -0.4226354956626892,
                        0.13724534213542938,
                        -0.009490800090134144,
                        -0.017333809286355972,
                        -0.057650916278362274,
                        -0.02849668264389038,
                        -0.03335253894329071,
                        -0.02948642335832119,
                        0.04203769192099571,
                        -0.014209465123713017,
                        -0.03758653625845909,
                        -0.06187240406870842,
                        -0.01596984453499317,
                        0.006124438717961311
                    ],
                    [
                        -0.029024386778473854,
                        0.014911570586264133,
                        0.05246235057711601,
                        0.06286058574914932,
                        0.014793000183999538,
                        0.1358477920293808,
                        -0.034286804497241974,
                        0.042492058128118515,
                        0.10289967805147171,
                        0.041854530572891235,
                        0.017258889973163605,
                        0.02291729487478733,
                        -0.0033224206417798996,
                        -0.05711376294493675,
                        0.023851443082094193,
                        0.002420703647658229,
                        -0.011981576681137085,
                        0.15178222954273224,
                        -0.06174571439623833,
                        0.038172099739313126,
                        0.06077033653855324,
                        -0.02991430088877678,
                        -0.049469903111457825,
                        0.0034573026932775974,
                        -0.020381955429911613,
                        0.2568027079105377,
                        0.013056986033916473,
                        0.12855061888694763,
                        0.09234362840652466,
                        0.640334963798523,
                        0.16995246708393097,
                        0.48833176493644714,
                        -0.3313784599304199,
                        0.10875740647315979,
                        0.5343871712684631,
                        -0.44210150837898254,
                        0.011919566430151463,
                        0.10800620913505554,
                        -0.05020212009549141,
                        -0.007361930795013905,
                        0.0032170312479138374,
                        0.01909635215997696,
                        -0.04831891879439354,
                        0.05382632836699486,
                        0.12194666266441345,
                        0.05587046220898628,
                        0.012446445412933826,
                        0.0220500398427248
                    ],
                    [
                        -0.10965579003095627,
                        0.05575449764728546,
                        -0.09340229630470276,
                        -0.0794406607747078,
                        0.027375174686312675,
                        0.05595781281590462,
                        -0.05080190673470497,
                        0.07760133594274521,
                        0.09760076552629471,
                        -0.002756088739261031,
                        -0.006470418069511652,
                        0.00023268446966540068,
                        -0.09016353636980057,
                        0.3173947036266327,
                        -0.06561838090419769,
                        -0.047118522226810455,
                        -0.04318755120038986,
                        0.1478758156299591,
                        0.009916210547089577,
                        0.093070849776268,
                        0.08451157063245773,
                        0.21791331470012665,
                        0.03342115879058838,
                        -0.010750691406428814,
                        -0.14759604632854462,
                        0.6424068212509155,
                        0.02427593246102333,
                        -0.20343095064163208,
                        -0.08229462057352066,
                        0.259402871131897,
                        0.41494181752204895,
                        -0.06607583910226822,
                        0.1416424810886383,
                        0.26203715801239014,
                        -0.19040292501449585,
                        0.1895328164100647,
                        -0.05155029892921448,
                        0.20361045002937317,
                        -0.14708012342453003,
                        -0.07368990033864975,
                        0.026970820501446724,
                        0.026660902425646782,
                        -0.06641698628664017,
                        0.0834258645772934,
                        0.07394838333129883,
                        0.017836084589362144,
                        0.005596652626991272,
                        0.0010186941362917423
                    ],
                    [
                        -0.11517086625099182,
                        0.012357371859252453,
                        -0.08864060044288635,
                        0.029848940670490265,
                        0.012796582654118538,
                        0.04785340651869774,
                        0.03541209548711777,
                        0.018435269594192505,
                        -0.02295122854411602,
                        -0.0002577884588390589,
                        -0.0003983981441706419,
                        -0.008967852219939232,
                        0.01507826242595911,
                        0.019917281344532967,
                        -0.057730693370103836,
                        -0.002699791919440031,
                        0.014059369452297688,
                        -0.011289750225841999,
                        0.013927328400313854,
                        0.011865682899951935,
                        0.03033170849084854,
                        0.013514649122953415,
                        -0.013444067910313606,
                        -0.011971309781074524,
                        0.35775282979011536,
                        0.9304706454277039,
                        -0.26222938299179077,
                        0.25690001249313354,
                        -0.8013953566551208,
                        -1.2238969802856445,
                        -0.33212095499038696,
                        0.027083231136202812,
                        0.5446107983589172,
                        -0.46466541290283203,
                        -0.3749007284641266,
                        -0.14350846409797668,
                        -0.03978630527853966,
                        -0.02293437346816063,
                        -0.04525960236787796,
                        -0.01372049655765295,
                        0.019827494397759438,
                        -0.004356022458523512,
                        0.04398004710674286,
                        0.02483881637454033,
                        0.005083237774670124,
                        0.0057608759962022305,
                        -0.013852188363671303,
                        -0.014560531824827194
                    ],
                    [
                        -0.1544649749994278,
                        0.10808123648166656,
                        -0.04195393994450569,
                        -0.08601053059101105,
                        0.025634095072746277,
                        0.0017173063242807984,
                        0.04697425290942192,
                        0.06059025600552559,
                        -0.01962062530219555,
                        -0.030558057129383087,
                        -0.016334114596247673,
                        -0.0035783485509455204,
                        -0.0592862032353878,
                        0.24781616032123566,
                        -0.015211207792162895,
                        -0.05067295953631401,
                        -0.030146386474370956,
                        0.03319159522652626,
                        0.07204162329435349,
                        0.0728890672326088,
                        -0.01730945147573948,
                        0.14268739521503448,
                        0.029820583760738373,
                        0.008257290348410606,
                        0.05144496262073517,
                        -0.33053895831108093,
                        0.0018067550845444202,
                        0.23669534921646118,
                        0.23555605113506317,
                        -0.08835964649915695,
                        0.4336642622947693,
                        0.006467109080404043,
                        0.1715003252029419,
                        -0.18984661996364594,
                        0.2992733418941498,
                        -0.22299133241176605,
                        -0.05820268765091896,
                        0.18695726990699768,
                        -0.010997622273862362,
                        -0.07376504689455032,
                        0.03551340475678444,
                        0.10121767222881317,
                        0.044836338609457016,
                        0.06175389885902405,
                        -0.033614303916692734,
                        -0.007207031827419996,
                        -0.0008179070428013802,
                        -0.0012324347626417875
                    ],
                    [
                        -0.09236926585435867,
                        0.05317113175988197,
                        -0.04049452021718025,
                        -0.027308354154229164,
                        -0.0012062714667990804,
                        -0.006218845956027508,
                        0.15532168745994568,
                        -0.003889298066496849,
                        -0.1067349836230278,
                        -0.10168541222810745,
                        -0.013142695650458336,
                        -0.009921769611537457,
                        0.007085306569933891,
                        0.038798738270998,
                        -0.042413245886564255,
                        -0.05811616778373718,
                        0.01162918470799923,
                        -0.05103547126054764,
                        0.0991453155875206,
                        0.04299728199839592,
                        0.008121167309582233,
                        -0.0449109822511673,
                        -0.009830947034060955,
                        0.04036669433116913,
                        0.27559468150138855,
                        -0.2919158339500427,
                        0.21606013178825378,
                        0.15891458094120026,
                        0.38528120517730713,
                        -0.6632561683654785,
                        -0.3157179653644562,
                        1.0257292985916138,
                        0.20551134645938873,
                        0.5945829749107361,
                        -0.4275642931461334,
                        0.1928156316280365,
                        -0.020803509280085564,
                        0.026371708139777184,
                        -0.019875364378094673,
                        -0.03258810192346573,
                        0.0025970020797103643,
                        -0.021383173763751984,
                        0.14356271922588348,
                        -0.002332592848688364,
                        -0.08073834329843521,
                        -0.08322977274656296,
                        -0.01413862407207489,
                        -0.0059049008414149284
                    ],
                    [
                        0.12360908091068268,
                        -0.01714300364255905,
                        0.08272247761487961,
                        -0.002285742200911045,
                        -0.018044818192720413,
                        0.022378815338015556,
                        -0.07634010165929794,
                        -0.010592957958579063,
                        0.12799161672592163,
                        0.028302770107984543,
                        -0.007898171432316303,
                        -6.749480235157534e-05,
                        0.013831602409482002,
                        0.043732885271310806,
                        0.007497130427509546,
                        -0.011987646110355854,
                        -0.03477125242352486,
                        0.02098819799721241,
                        -0.07107465714216232,
                        0.0009188596159219742,
                        0.08055731654167175,
                        0.024618016555905342,
                        -0.010139274410903454,
                        -0.00739890756085515,
                        0.06745097786188126,
                        0.02632211148738861,
                        -0.062210287898778915,
                        0.20334221422672272,
                        0.46526801586151123,
                        0.5677406191825867,
                        0.3330206871032715,
                        -0.23057062923908234,
                        -0.3048669099807739,
                        -0.4153946042060852,
                        -0.2818883955478668,
                        -0.7855843901634216,
                        0.02055506221950054,
                        0.00977458618581295,
                        0.07203438878059387,
                        0.007290007080882788,
                        -0.01427004486322403,
                        -0.01603517308831215,
                        -0.07446832954883575,
                        -0.009906750172376633,
                        0.10024231672286987,
                        0.056595440953969955,
                        -0.014671571552753448,
                        -0.024839600548148155
                    ],
                    [
                        0.033707570284605026,
                        0.013691763393580914,
                        -0.028867270797491074,
                        -0.015259354375302792,
                        0.02729676105082035,
                        -0.014692375436425209,
                        -0.02961554005742073,
                        0.01274102833122015,
                        2.592589044070337e-05,
                        0.07055126130580902,
                        0.012353315018117428,
                        -0.0014519087271764874,
                        0.008805041201412678,
                        0.04040245711803436,
                        -0.021920861676335335,
                        0.01503430400043726,
                        0.012267768383026123,
                        0.00923523586243391,
                        -0.030408889055252075,
                        -0.015550456009805202,
                        -0.00028494876460172236,
                        0.11529891937971115,
                        0.0018145116046071053,
                        -0.04335932433605194,
                        0.1425047069787979,
                        -0.4508090615272522,
                        0.1278151124715805,
                        -0.09104464203119278,
                        -0.7617042660713196,
                        -0.3434986174106598,
                        0.11904124915599823,
                        0.4722619950771332,
                        0.10037574917078018,
                        -0.21296848356723785,
                        0.9597952961921692,
                        -0.3940510153770447,
                        -0.014874788001179695,
                        0.02250414900481701,
                        -0.020371990278363228,
                        -0.002064774977043271,
                        0.035318274050951004,
                        0.005976380780339241,
                        -0.009825150482356548,
                        0.011666478589177132,
                        -0.012086045928299427,
                        0.060260917991399765,
                        0.0169946551322937,
                        0.008219451643526554
                    ]
                ],
                [
                    -1.7407755851745605,
                    1.117649793624878,
                    -0.6846634149551392,
                    -0.06087877228856087,
                    1.045000433921814,
                    0.9361169338226318,
                    0.3441530168056488,
                    1.4980618953704834,
                    0.30369341373443604,
                    0.9511106610298157,
                    1.2597806453704834,
                    0.9355382919311523,
                    2.6618220806121826,
                    -0.25350260734558105,
                    1.488642692565918,
                    1.1750051975250244,
                    -0.11823289841413498,
                    0.6338601112365723,
                    0.2967321574687958,
                    0.011160108260810375,
                    0.34707510471343994,
                    0.28165385127067566,
                    -0.014646587893366814,
                    -0.09822255373001099,
                    0.011355161666870117,
                    -0.03152276948094368,
                    0.07547161728143692,
                    0.00784975290298462,
                    -0.04610932618379593,
                    -0.024284685030579567,
                    0.04772106185555458,
                    -0.027928151190280914,
                    0.05015748739242554,
                    0.12830750644207,
                    -0.10920967161655426,
                    -6.187893450260162e-05,
                    0.3345046043395996,
                    0.6819652318954468,
                    0.5970178842544556,
                    0.38603317737579346,
                    1.081589698791504,
                    0.49919313192367554,
                    0.5733562111854553,
                    1.5714786052703857,
                    0.49605342745780945,
                    1.2076170444488525,
                    1.3691593408584595,
                    1.0620412826538086
                ]
            ]
        },
        {
            "type": "dense",
            "activation": "",
            "shape": [
                null,
                null,
                1
            ],
            "weights": [
                [
                    [
                        0.06393788754940033
                    ],
                    [
                        0.7000910639762878
                    ],
                    [
                        0.030355336144566536
                    ],
                    [
                        0.5805003643035889
                    ],
                    [
                        0.5054938197135925
                    ],
                    [
                        0.13523989915847778
                    ],
                    [
                        -0.18000419437885284
                    ],
                    [
                        -0.7891495823860168
                    ],
                    [
                        0.05997992679476738
                    ],
                    [
                        0.0683293491601944
                    ],
                    [
                        -1.3322858810424805
                    ],
                    [
                        0.11741453409194946
                    ]
                ],
                [
                    0.023356206715106964
                ]
            ]
        }
    ],
    "samplerate": "48000",
    "author": "Aida DSP",
    "esr": 0.025893114507198334
}